<?xml version="1.0"?>
<opencv_storage>
<!-- Automatically converted from /home/matt/fuerte_workspace/following/harr/harrhall/, window size = 30x32 -->
<parrot2 type_id="opencv-haar-classifier">
  <size>
    30 32</size>
  <stages>
    <_>
      <!-- stage 0 -->
      <trees>
        <_>
          <!-- tree 0 -->
          <_>
            <!-- root node -->
            <feature>
              <rects>
                <_>
                  13 5 4 16 -1.</_>
                <_>
                  13 13 4 8 2.</_></rects>
              <tilted>0</tilted></feature>
            <threshold>-8.8268611580133438e-03</threshold>
            <left_val>9.3558609485626221e-01</left_val>
            <right_val>-9.8468488454818726e-01</right_val></_></_>
        <_>
          <!-- tree 1 -->
          <_>
            <!-- root node -->
            <feature>
              <rects>
                <_>
                  12 8 6 12 -1.</_>
                <_>
                  12 14 6 6 2.</_></rects>
              <tilted>0</tilted></feature>
            <threshold>-1.1937039904296398e-02</threshold>
            <left_val>8.5741621255874634e-01</left_val>
            <right_val>-9.5856088399887085e-01</right_val></_></_></trees>
      <stage_threshold>-1.2726870179176331e-01</stage_threshold>
      <parent>-1</parent>
      <next>-1</next></_>
    <_>
      <!-- stage 1 -->
      <trees>
        <_>
          <!-- tree 0 -->
          <_>
            <!-- root node -->
            <feature>
              <rects>
                <_>
                  9 12 12 11 -1.</_>
                <_>
                  13 12 4 11 3.</_></rects>
              <tilted>0</tilted></feature>
            <threshold>-2.8452610597014427e-02</threshold>
            <left_val>7.2739142179489136e-01</left_val>
            <right_val>-8.1064641475677490e-01</right_val></_></_>
        <_>
          <!-- tree 1 -->
          <_>
            <!-- root node -->
            <feature>
              <rects>
                <_>
                  10 9 17 18 -1.</_>
                <_>
                  10 15 17 6 3.</_></rects>
              <tilted>0</tilted></feature>
            <threshold>-5.8448228985071182e-02</threshold>
            <left_val>4.8342528939247131e-01</left_val>
            <right_val>-6.1764079332351685e-01</right_val></_></_>
        <_>
          <!-- tree 2 -->
          <_>
            <!-- root node -->
            <feature>
              <rects>
                <_>
                  2 0 24 19 -1.</_>
                <_>
                  10 0 8 19 3.</_></rects>
              <tilted>0</tilted></feature>
            <threshold>-3.8183018565177917e-02</threshold>
            <left_val>5.0750339031219482e-01</left_val>
            <right_val>-7.2795611619949341e-01</right_val></_></_>
        <_>
          <!-- tree 3 -->
          <_>
            <!-- root node -->
            <feature>
              <rects>
                <_>
                  14 0 9 29 -1.</_>
                <_>
                  17 0 3 29 3.</_></rects>
              <tilted>0</tilted></feature>
            <threshold>1.6015289351344109e-02</threshold>
            <left_val>-1.8762789666652679e-01</left_val>
            <right_val>3.6292931437492371e-01</right_val></_></_>
        <_>
          <!-- tree 4 -->
          <_>
            <!-- root node -->
            <feature>
              <rects>
                <_>
                  7 0 9 29 -1.</_>
                <_>
                  10 0 3 29 3.</_></rects>
              <tilted>0</tilted></feature>
            <threshold>1.5951139852404594e-02</threshold>
            <left_val>-4.4924309849739075e-01</left_val>
            <right_val>7.6861810684204102e-01</right_val></_></_></trees>
      <stage_threshold>-1.5576549768447876e+00</stage_threshold>
      <parent>0</parent>
      <next>-1</next></_>
    <_>
      <!-- stage 2 -->
      <trees>
        <_>
          <!-- tree 0 -->
          <_>
            <!-- root node -->
            <feature>
              <rects>
                <_>
                  12 10 6 15 -1.</_>
                <_>
                  12 15 6 5 3.</_></rects>
              <tilted>0</tilted></feature>
            <threshold>-2.2897429764270782e-02</threshold>
            <left_val>4.4294708967208862e-01</left_val>
            <right_val>-8.8750457763671875e-01</right_val></_></_>
        <_>
          <!-- tree 1 -->
          <_>
            <!-- root node -->
            <feature>
              <rects>
                <_>
                  6 0 18 26 -1.</_>
                <_>
                  12 0 6 26 3.</_></rects>
              <tilted>0</tilted></feature>
            <threshold>-1.1903060227632523e-01</threshold>
            <left_val>6.6838729381561279e-01</left_val>
            <right_val>-6.2371748685836792e-01</right_val></_></_>
        <_>
          <!-- tree 2 -->
          <_>
            <!-- root node -->
            <feature>
              <rects>
                <_>
                  1 19 12 3 -1.</_>
                <_>
                  5 19 4 3 3.</_></rects>
              <tilted>0</tilted></feature>
            <threshold>-5.4332818835973740e-03</threshold>
            <left_val>5.8060377836227417e-01</left_val>
            <right_val>-4.3522068858146667e-01</right_val></_></_>
        <_>
          <!-- tree 3 -->
          <_>
            <!-- root node -->
            <feature>
              <rects>
                <_>
                  14 17 4 5 -1.</_>
                <_>
                  14 17 2 5 2.</_></rects>
              <tilted>0</tilted></feature>
            <threshold>1.2271569576114416e-03</threshold>
            <left_val>-1.1977600306272507e-01</left_val>
            <right_val>2.9875779151916504e-01</right_val></_></_>
        <_>
          <!-- tree 4 -->
          <_>
            <!-- root node -->
            <feature>
              <rects>
                <_>
                  10 9 6 8 -1.</_>
                <_>
                  12 9 2 8 3.</_></rects>
              <tilted>0</tilted></feature>
            <threshold>-8.2265445962548256e-03</threshold>
            <left_val>7.0388287305831909e-01</left_val>
            <right_val>-3.2056459784507751e-01</right_val></_></_>
        <_>
          <!-- tree 5 -->
          <_>
            <!-- root node -->
            <feature>
              <rects>
                <_>
                  14 17 4 5 -1.</_>
                <_>
                  14 17 2 5 2.</_></rects>
              <tilted>0</tilted></feature>
            <threshold>6.7102420143783092e-03</threshold>
            <left_val>-4.5210248790681362e-03</left_val>
            <right_val>4.3454998731613159e-01</right_val></_></_>
        <_>
          <!-- tree 6 -->
          <_>
            <!-- root node -->
            <feature>
              <rects>
                <_>
                  12 17 4 5 -1.</_>
                <_>
                  14 17 2 5 2.</_></rects>
              <tilted>0</tilted></feature>
            <threshold>-3.8379940669983625e-03</threshold>
            <left_val>4.8415088653564453e-01</left_val>
            <right_val>-4.5702910423278809e-01</right_val></_></_></trees>
      <stage_threshold>-8.9132910966873169e-01</stage_threshold>
      <parent>1</parent>
      <next>-1</next></_>
    <_>
      <!-- stage 3 -->
      <trees>
        <_>
          <!-- tree 0 -->
          <_>
            <!-- root node -->
            <feature>
              <rects>
                <_>
                  3 2 17 30 -1.</_>
                <_>
                  3 12 17 10 3.</_></rects>
              <tilted>0</tilted></feature>
            <threshold>-1.8625350296497345e-01</threshold>
            <left_val>4.7010269761085510e-01</left_val>
            <right_val>-6.1734861135482788e-01</right_val></_></_>
        <_>
          <!-- tree 1 -->
          <_>
            <!-- root node -->
            <feature>
              <rects>
                <_>
                  14 14 6 7 -1.</_>
                <_>
                  14 14 3 7 2.</_></rects>
              <tilted>0</tilted></feature>
            <threshold>-6.1645209789276123e-03</threshold>
            <left_val>2.2993710637092590e-01</left_val>
            <right_val>-4.8264420032501221e-01</right_val></_></_>
        <_>
          <!-- tree 2 -->
          <_>
            <!-- root node -->
            <feature>
              <rects>
                <_>
                  10 15 6 6 -1.</_>
                <_>
                  13 15 3 6 2.</_></rects>
              <tilted>0</tilted></feature>
            <threshold>-8.6162183433771133e-03</threshold>
            <left_val>3.3148959279060364e-01</left_val>
            <right_val>-6.5339457988739014e-01</right_val></_></_>
        <_>
          <!-- tree 3 -->
          <_>
            <!-- root node -->
            <feature>
              <rects>
                <_>
                  23 11 6 7 -1.</_>
                <_>
                  25 11 2 7 3.</_></rects>
              <tilted>0</tilted></feature>
            <threshold>7.2637428529560566e-03</threshold>
            <left_val>-1.5115919709205627e-01</left_val>
            <right_val>5.0617027282714844e-01</right_val></_></_>
        <_>
          <!-- tree 4 -->
          <_>
            <!-- root node -->
            <feature>
              <rects>
                <_>
                  3 15 4 6 -1.</_>
                <_>
                  3 15 2 3 2.</_>
                <_>
                  5 18 2 3 2.</_></rects>
              <tilted>0</tilted></feature>
            <threshold>-3.1537190079689026e-03</threshold>
            <left_val>6.4630609750747681e-01</left_val>
            <right_val>-3.1553480029106140e-01</right_val></_></_>
        <_>
          <!-- tree 5 -->
          <_>
            <!-- root node -->
            <feature>
              <rects>
                <_>
                  12 1 7 12 -1.</_>
                <_>
                  12 5 7 4 3.</_></rects>
              <tilted>0</tilted></feature>
            <threshold>-1.5930889174342155e-02</threshold>
            <left_val>7.0105898380279541e-01</left_val>
            <right_val>-2.0043709874153137e-01</right_val></_></_>
        <_>
          <!-- tree 6 -->
          <_>
            <!-- root node -->
            <feature>
              <rects>
                <_>
                  6 5 18 24 -1.</_>
                <_>
                  6 13 18 8 3.</_></rects>
              <tilted>0</tilted></feature>
            <threshold>-7.2622552514076233e-02</threshold>
            <left_val>2.5010511279106140e-01</left_val>
            <right_val>-8.3330988883972168e-01</right_val></_></_></trees>
      <stage_threshold>-1.1855289936065674e+00</stage_threshold>
      <parent>2</parent>
      <next>-1</next></_>
    <_>
      <!-- stage 4 -->
      <trees>
        <_>
          <!-- tree 0 -->
          <_>
            <!-- root node -->
            <feature>
              <rects>
                <_>
                  6 15 18 8 -1.</_>
                <_>
                  12 15 6 8 3.</_></rects>
              <tilted>0</tilted></feature>
            <threshold>-4.3093040585517883e-02</threshold>
            <left_val>2.8106039762496948e-01</left_val>
            <right_val>-7.2960120439529419e-01</right_val></_></_>
        <_>
          <!-- tree 1 -->
          <_>
            <!-- root node -->
            <feature>
              <rects>
                <_>
                  20 18 10 5 -1.</_>
                <_>
                  20 18 5 5 2.</_></rects>
              <tilted>0</tilted></feature>
            <threshold>6.8787122145295143e-03</threshold>
            <left_val>3.1405810266733170e-02</left_val>
            <right_val>-3.5702401399612427e-01</right_val></_></_>
        <_>
          <!-- tree 2 -->
          <_>
            <!-- root node -->
            <feature>
              <rects>
                <_>
                  0 18 10 5 -1.</_>
                <_>
                  5 18 5 5 2.</_></rects>
              <tilted>0</tilted></feature>
            <threshold>-5.4237050935626030e-03</threshold>
            <left_val>3.5604611039161682e-01</left_val>
            <right_val>-6.0163551568984985e-01</right_val></_></_>
        <_>
          <!-- tree 3 -->
          <_>
            <!-- root node -->
            <feature>
              <rects>
                <_>
                  0 9 30 15 -1.</_>
                <_>
                  0 14 30 5 3.</_></rects>
              <tilted>0</tilted></feature>
            <threshold>-6.2920272350311279e-02</threshold>
            <left_val>3.0729910731315613e-01</left_val>
            <right_val>-5.3566682338714600e-01</right_val></_></_>
        <_>
          <!-- tree 4 -->
          <_>
            <!-- root node -->
            <feature>
              <rects>
                <_>
                  14 10 2 2 -1.</_>
                <_>
                  15 10 1 2 2.</_></rects>
              <tilted>0</tilted></feature>
            <threshold>1.2143229832872748e-03</threshold>
            <left_val>-2.5951629877090454e-01</left_val>
            <right_val>6.4102679491043091e-01</right_val></_></_>
        <_>
          <!-- tree 5 -->
          <_>
            <!-- root node -->
            <feature>
              <rects>
                <_>
                  8 0 22 11 -1.</_>
                <_>
                  8 0 11 11 2.</_></rects>
              <tilted>0</tilted></feature>
            <threshold>-1.0962030291557312e-01</threshold>
            <left_val>-3.3756950497627258e-01</left_val>
            <right_val>8.7718583643436432e-02</right_val></_></_>
        <_>
          <!-- tree 6 -->
          <_>
            <!-- root node -->
            <feature>
              <rects>
                <_>
                  11 16 2 6 -1.</_>
                <_>
                  11 16 1 3 2.</_>
                <_>
                  12 19 1 3 2.</_></rects>
              <tilted>0</tilted></feature>
            <threshold>3.2028730493038893e-04</threshold>
            <left_val>-4.2154419422149658e-01</left_val>
            <right_val>3.5369831323623657e-01</right_val></_></_>
        <_>
          <!-- tree 7 -->
          <_>
            <!-- root node -->
            <feature>
              <rects>
                <_>
                  17 3 9 9 -1.</_>
                <_>
                  17 6 9 3 3.</_></rects>
              <tilted>0</tilted></feature>
            <threshold>-1.1360879987478256e-02</threshold>
            <left_val>3.2684850692749023e-01</left_val>
            <right_val>-1.0962229967117310e-01</right_val></_></_>
        <_>
          <!-- tree 8 -->
          <_>
            <!-- root node -->
            <feature>
              <rects>
                <_>
                  5 2 9 12 -1.</_>
                <_>
                  5 6 9 4 3.</_></rects>
              <tilted>0</tilted></feature>
            <threshold>-2.7447070926427841e-02</threshold>
            <left_val>6.5968918800354004e-01</left_val>
            <right_val>-2.3438020050525665e-01</right_val></_></_>
        <_>
          <!-- tree 9 -->
          <_>
            <!-- root node -->
            <feature>
              <rects>
                <_>
                  8 0 20 18 -1.</_>
                <_>
                  18 0 10 9 2.</_>
                <_>
                  8 9 10 9 2.</_></rects>
              <tilted>0</tilted></feature>
            <threshold>-1.3550840318202972e-01</threshold>
            <left_val>-8.1263947486877441e-01</left_val>
            <right_val>8.4216013550758362e-02</right_val></_></_>
        <_>
          <!-- tree 10 -->
          <_>
            <!-- root node -->
            <feature>
              <rects>
                <_>
                  2 0 20 18 -1.</_>
                <_>
                  2 0 10 9 2.</_>
                <_>
                  12 9 10 9 2.</_></rects>
              <tilted>0</tilted></feature>
            <threshold>-7.8019976615905762e-02</threshold>
            <left_val>-8.4635251760482788e-01</left_val>
            <right_val>1.6390720009803772e-01</right_val></_></_></trees>
      <stage_threshold>-8.4528261423110962e-01</stage_threshold>
      <parent>3</parent>
      <next>-1</next></_>
    <_>
      <!-- stage 5 -->
      <trees>
        <_>
          <!-- tree 0 -->
          <_>
            <!-- root node -->
            <feature>
              <rects>
                <_>
                  6 8 12 21 -1.</_>
                <_>
                  12 8 6 21 2.</_></rects>
              <tilted>0</tilted></feature>
            <threshold>-3.9470970630645752e-02</threshold>
            <left_val>3.6534461379051208e-01</left_val>
            <right_val>-6.5294128656387329e-01</right_val></_></_>
        <_>
          <!-- tree 1 -->
          <_>
            <!-- root node -->
            <feature>
              <rects>
                <_>
                  21 17 3 9 -1.</_>
                <_>
                  22 17 1 9 3.</_></rects>
              <tilted>0</tilted></feature>
            <threshold>2.0112229976803064e-03</threshold>
            <left_val>-1.7059880495071411e-01</left_val>
            <right_val>3.6794590950012207e-01</right_val></_></_>
        <_>
          <!-- tree 2 -->
          <_>
            <!-- root node -->
            <feature>
              <rects>
                <_>
                  0 6 30 8 -1.</_>
                <_>
                  10 6 10 8 3.</_></rects>
              <tilted>0</tilted></feature>
            <threshold>4.6032508835196495e-03</threshold>
            <left_val>2.2042250633239746e-01</left_val>
            <right_val>-7.8569829463958740e-01</right_val></_></_>
        <_>
          <!-- tree 3 -->
          <_>
            <!-- root node -->
            <feature>
              <rects>
                <_>
                  23 13 6 4 -1.</_>
                <_>
                  25 13 2 4 3.</_></rects>
              <tilted>0</tilted></feature>
            <threshold>-2.3764849174767733e-03</threshold>
            <left_val>3.1289240717887878e-01</left_val>
            <right_val>-1.2834839522838593e-01</right_val></_></_>
        <_>
          <!-- tree 4 -->
          <_>
            <!-- root node -->
            <feature>
              <rects>
                <_>
                  1 13 6 4 -1.</_>
                <_>
                  3 13 2 4 3.</_></rects>
              <tilted>0</tilted></feature>
            <threshold>-5.1495041698217392e-03</threshold>
            <left_val>5.7714617252349854e-01</left_val>
            <right_val>-3.0441468954086304e-01</right_val></_></_>
        <_>
          <!-- tree 5 -->
          <_>
            <!-- root node -->
            <feature>
              <rects>
                <_>
                  3 24 24 8 -1.</_>
                <_>
                  3 28 24 4 2.</_></rects>
              <tilted>0</tilted></feature>
            <threshold>4.0525410324335098e-02</threshold>
            <left_val>-3.3735439181327820e-01</left_val>
            <right_val>5.3960728645324707e-01</right_val></_></_>
        <_>
          <!-- tree 6 -->
          <_>
            <!-- root node -->
            <feature>
              <rects>
                <_>
                  5 14 8 6 -1.</_>
                <_>
                  5 16 8 2 3.</_></rects>
              <tilted>0</tilted></feature>
            <threshold>4.9546221271157265e-03</threshold>
            <left_val>-3.0436909198760986e-01</left_val>
            <right_val>5.0029790401458740e-01</right_val></_></_></trees>
      <stage_threshold>-8.7293708324432373e-01</stage_threshold>
      <parent>4</parent>
      <next>-1</next></_>
    <_>
      <!-- stage 6 -->
      <trees>
        <_>
          <!-- tree 0 -->
          <_>
            <!-- root node -->
            <feature>
              <rects>
                <_>
                  6 18 9 6 -1.</_>
                <_>
                  6 20 9 2 3.</_></rects>
              <tilted>0</tilted></feature>
            <threshold>9.5035322010517120e-03</threshold>
            <left_val>-2.8502660989761353e-01</left_val>
            <right_val>6.3066327571868896e-01</right_val></_></_>
        <_>
          <!-- tree 1 -->
          <_>
            <!-- root node -->
            <feature>
              <rects>
                <_>
                  12 9 15 18 -1.</_>
                <_>
                  12 15 15 6 3.</_></rects>
              <tilted>0</tilted></feature>
            <threshold>-2.7566969394683838e-02</threshold>
            <left_val>9.5160096883773804e-02</left_val>
            <right_val>-3.3125200867652893e-01</right_val></_></_>
        <_>
          <!-- tree 2 -->
          <_>
            <!-- root node -->
            <feature>
              <rects>
                <_>
                  9 15 12 5 -1.</_>
                <_>
                  13 15 4 5 3.</_></rects>
              <tilted>0</tilted></feature>
            <threshold>-3.3172179013490677e-02</threshold>
            <left_val>3.6931160092353821e-01</left_val>
            <right_val>-3.8033351302146912e-01</right_val></_></_>
        <_>
          <!-- tree 3 -->
          <_>
            <!-- root node -->
            <feature>
              <rects>
                <_>
                  19 2 11 30 -1.</_>
                <_>
                  19 12 11 10 3.</_></rects>
              <tilted>0</tilted></feature>
            <threshold>2.7128880843520164e-02</threshold>
            <left_val>1.1186949908733368e-01</left_val>
            <right_val>-4.5918861031532288e-01</right_val></_></_>
        <_>
          <!-- tree 4 -->
          <_>
            <!-- root node -->
            <feature>
              <rects>
                <_>
                  0 19 18 7 -1.</_>
                <_>
                  6 19 6 7 3.</_></rects>
              <tilted>0</tilted></feature>
            <threshold>4.5665308833122253e-02</threshold>
            <left_val>1.5087319910526276e-01</left_val>
            <right_val>-8.7888747453689575e-01</right_val></_></_>
        <_>
          <!-- tree 5 -->
          <_>
            <!-- root node -->
            <feature>
              <rects>
                <_>
                  14 0 9 22 -1.</_>
                <_>
                  17 0 3 22 3.</_></rects>
              <tilted>0</tilted></feature>
            <threshold>1.1778379557654262e-03</threshold>
            <left_val>-1.7498140037059784e-01</left_val>
            <right_val>9.8254390060901642e-02</right_val></_></_>
        <_>
          <!-- tree 6 -->
          <_>
            <!-- root node -->
            <feature>
              <rects>
                <_>
                  7 0 9 22 -1.</_>
                <_>
                  10 0 3 22 3.</_></rects>
              <tilted>0</tilted></feature>
            <threshold>2.1885409951210022e-02</threshold>
            <left_val>-2.9418829083442688e-01</left_val>
            <right_val>3.8881081342697144e-01</right_val></_></_>
        <_>
          <!-- tree 7 -->
          <_>
            <!-- root node -->
            <feature>
              <rects>
                <_>
                  22 16 4 6 -1.</_>
                <_>
                  24 16 2 3 2.</_>
                <_>
                  22 19 2 3 2.</_></rects>
              <tilted>0</tilted></feature>
            <threshold>-2.0231269299983978e-03</threshold>
            <left_val>2.9068359732627869e-01</left_val>
            <right_val>-1.3851280510425568e-01</right_val></_></_>
        <_>
          <!-- tree 8 -->
          <_>
            <!-- root node -->
            <feature>
              <rects>
                <_>
                  6 17 3 9 -1.</_>
                <_>
                  7 17 1 9 3.</_></rects>
              <tilted>0</tilted></feature>
            <threshold>1.4159319689497352e-03</threshold>
            <left_val>-2.7744120359420776e-01</left_val>
            <right_val>4.3820199370384216e-01</right_val></_></_>
        <_>
          <!-- tree 9 -->
          <_>
            <!-- root node -->
            <feature>
              <rects>
                <_>
                  12 10 12 18 -1.</_>
                <_>
                  12 16 12 6 3.</_></rects>
              <tilted>0</tilted></feature>
            <threshold>-2.2188030183315277e-01</threshold>
            <left_val>-1.</left_val>
            <right_val>1.4143479987978935e-02</right_val></_></_>
        <_>
          <!-- tree 10 -->
          <_>
            <!-- root node -->
            <feature>
              <rects>
                <_>
                  6 10 12 18 -1.</_>
                <_>
                  6 16 12 6 3.</_></rects>
              <tilted>0</tilted></feature>
            <threshold>-4.6061821281909943e-02</threshold>
            <left_val>2.2966749966144562e-01</left_val>
            <right_val>-5.6038802862167358e-01</right_val></_></_>
        <_>
          <!-- tree 11 -->
          <_>
            <!-- root node -->
            <feature>
              <rects>
                <_>
                  21 11 2 12 -1.</_>
                <_>
                  22 11 1 6 2.</_>
                <_>
                  21 17 1 6 2.</_></rects>
              <tilted>0</tilted></feature>
            <threshold>-1.7176639521494508e-03</threshold>
            <left_val>2.8179690241813660e-01</left_val>
            <right_val>-1.8284919857978821e-01</right_val></_></_>
        <_>
          <!-- tree 12 -->
          <_>
            <!-- root node -->
            <feature>
              <rects>
                <_>
                  7 11 2 12 -1.</_>
                <_>
                  7 11 1 6 2.</_>
                <_>
                  8 17 1 6 2.</_></rects>
              <tilted>0</tilted></feature>
            <threshold>1.5330299502238631e-03</threshold>
            <left_val>-2.7016469836235046e-01</left_val>
            <right_val>4.6267509460449219e-01</right_val></_></_></trees>
      <stage_threshold>-1.0195620059967041e+00</stage_threshold>
      <parent>5</parent>
      <next>-1</next></_>
    <_>
      <!-- stage 7 -->
      <trees>
        <_>
          <!-- tree 0 -->
          <_>
            <!-- root node -->
            <feature>
              <rects>
                <_>
                  4 1 13 8 -1.</_>
                <_>
                  4 5 13 4 2.</_></rects>
              <tilted>0</tilted></feature>
            <threshold>-3.4560360014438629e-02</threshold>
            <left_val>5.6011092662811279e-01</left_val>
            <right_val>-2.7941200137138367e-01</right_val></_></_>
        <_>
          <!-- tree 1 -->
          <_>
            <!-- root node -->
            <feature>
              <rects>
                <_>
                  15 25 2 6 -1.</_>
                <_>
                  15 27 2 2 3.</_></rects>
              <tilted>0</tilted></feature>
            <threshold>-1.3849600218236446e-02</threshold>
            <left_val>9.2364877462387085e-01</left_val>
            <right_val>-8.3715375512838364e-03</right_val></_></_>
        <_>
          <!-- tree 2 -->
          <_>
            <!-- root node -->
            <feature>
              <rects>
                <_>
                  13 25 2 6 -1.</_>
                <_>
                  13 27 2 2 3.</_></rects>
              <tilted>0</tilted></feature>
            <threshold>-4.1649858467280865e-03</threshold>
            <left_val>6.2478917837142944e-01</left_val>
            <right_val>-2.0896430313587189e-01</right_val></_></_>
        <_>
          <!-- tree 3 -->
          <_>
            <!-- root node -->
            <feature>
              <rects>
                <_>
                  3 17 27 11 -1.</_>
                <_>
                  12 17 9 11 3.</_></rects>
              <tilted>0</tilted></feature>
            <threshold>-4.9832958728075027e-02</threshold>
            <left_val>2.0160859823226929e-01</left_val>
            <right_val>-5.2208787202835083e-01</right_val></_></_>
        <_>
          <!-- tree 4 -->
          <_>
            <!-- root node -->
            <feature>
              <rects>
                <_>
                  1 10 6 9 -1.</_>
                <_>
                  3 10 2 9 3.</_></rects>
              <tilted>0</tilted></feature>
            <threshold>-6.0095977969467640e-03</threshold>
            <left_val>4.0779599547386169e-01</left_val>
            <right_val>-3.4171169996261597e-01</right_val></_></_>
        <_>
          <!-- tree 5 -->
          <_>
            <!-- root node -->
            <feature>
              <rects>
                <_>
                  13 6 4 24 -1.</_>
                <_>
                  13 14 4 8 3.</_></rects>
              <tilted>0</tilted></feature>
            <threshold>-4.0479220449924469e-02</threshold>
            <left_val>1.7708900570869446e-01</left_val>
            <right_val>-7.8605157136917114e-01</right_val></_></_>
        <_>
          <!-- tree 6 -->
          <_>
            <!-- root node -->
            <feature>
              <rects>
                <_>
                  13 11 3 7 -1.</_>
                <_>
                  14 11 1 7 3.</_></rects>
              <tilted>0</tilted></feature>
            <threshold>1.3323159655556083e-03</threshold>
            <left_val>-2.4136309325695038e-01</left_val>
            <right_val>5.0042432546615601e-01</right_val></_></_>
        <_>
          <!-- tree 7 -->
          <_>
            <!-- root node -->
            <feature>
              <rects>
                <_>
                  6 0 24 16 -1.</_>
                <_>
                  6 0 12 16 2.</_></rects>
              <tilted>0</tilted></feature>
            <threshold>-3.8705378770828247e-02</threshold>
            <left_val>1.9712430238723755e-01</left_val>
            <right_val>-1.5203790366649628e-01</right_val></_></_>
        <_>
          <!-- tree 8 -->
          <_>
            <!-- root node -->
            <feature>
              <rects>
                <_>
                  1 2 24 15 -1.</_>
                <_>
                  13 2 12 15 2.</_></rects>
              <tilted>0</tilted></feature>
            <threshold>2.2691020742058754e-02</threshold>
            <left_val>2.0956179499626160e-01</left_val>
            <right_val>-7.4234569072723389e-01</right_val></_></_>
        <_>
          <!-- tree 9 -->
          <_>
            <!-- root node -->
            <feature>
              <rects>
                <_>
                  13 12 6 3 -1.</_>
                <_>
                  15 12 2 3 3.</_></rects>
              <tilted>0</tilted></feature>
            <threshold>5.3398730233311653e-03</threshold>
            <left_val>-1.0161820054054260e-01</left_val>
            <right_val>2.5887930393218994e-01</right_val></_></_>
        <_>
          <!-- tree 10 -->
          <_>
            <!-- root node -->
            <feature>
              <rects>
                <_>
                  5 11 16 20 -1.</_>
                <_>
                  5 11 8 10 2.</_>
                <_>
                  13 21 8 10 2.</_></rects>
              <tilted>0</tilted></feature>
            <threshold>8.4281899034976959e-02</threshold>
            <left_val>1.3658310472965240e-01</left_val>
            <right_val>-8.4867107868194580e-01</right_val></_></_>
        <_>
          <!-- tree 11 -->
          <_>
            <!-- root node -->
            <feature>
              <rects>
                <_>
                  3 29 24 3 -1.</_>
                <_>
                  3 29 12 3 2.</_></rects>
              <tilted>0</tilted></feature>
            <threshold>-2.7342520188540220e-03</threshold>
            <left_val>2.9994949698448181e-01</left_val>
            <right_val>-4.2470818758010864e-01</right_val></_></_>
        <_>
          <!-- tree 12 -->
          <_>
            <!-- root node -->
            <feature>
              <rects>
                <_>
                  12 13 6 1 -1.</_>
                <_>
                  14 13 2 1 3.</_></rects>
              <tilted>0</tilted></feature>
            <threshold>-7.4744957964867353e-04</threshold>
            <left_val>3.2027098536491394e-01</left_val>
            <right_val>-3.4916159510612488e-01</right_val></_></_></trees>
      <stage_threshold>-9.1631317138671875e-01</stage_threshold>
      <parent>6</parent>
      <next>-1</next></_>
    <_>
      <!-- stage 8 -->
      <trees>
        <_>
          <!-- tree 0 -->
          <_>
            <!-- root node -->
            <feature>
              <rects>
                <_>
                  2 15 22 4 -1.</_>
                <_>
                  2 15 11 2 2.</_>
                <_>
                  13 17 11 2 2.</_></rects>
              <tilted>0</tilted></feature>
            <threshold>2.1820910274982452e-02</threshold>
            <left_val>-1.9311359524726868e-01</left_val>
            <right_val>8.0008447170257568e-01</right_val></_></_>
        <_>
          <!-- tree 1 -->
          <_>
            <!-- root node -->
            <feature>
              <rects>
                <_>
                  17 12 6 4 -1.</_>
                <_>
                  20 12 3 2 2.</_>
                <_>
                  17 14 3 2 2.</_></rects>
              <tilted>0</tilted></feature>
            <threshold>-4.2149918153882027e-03</threshold>
            <left_val>4.0426799654960632e-01</left_val>
            <right_val>-1.5701809525489807e-01</right_val></_></_>
        <_>
          <!-- tree 2 -->
          <_>
            <!-- root node -->
            <feature>
              <rects>
                <_>
                  13 1 2 9 -1.</_>
                <_>
                  13 4 2 3 3.</_></rects>
              <tilted>0</tilted></feature>
            <threshold>9.3065537512302399e-03</threshold>
            <left_val>-1.6157339513301849e-01</left_val>
            <right_val>7.1598762273788452e-01</right_val></_></_>
        <_>
          <!-- tree 3 -->
          <_>
            <!-- root node -->
            <feature>
              <rects>
                <_>
                  20 12 10 16 -1.</_>
                <_>
                  20 12 5 16 2.</_></rects>
              <tilted>0</tilted></feature>
            <threshold>-5.5514868348836899e-02</threshold>
            <left_val>4.4205230474472046e-01</left_val>
            <right_val>-1.2764599919319153e-01</right_val></_></_>
        <_>
          <!-- tree 4 -->
          <_>
            <!-- root node -->
            <feature>
              <rects>
                <_>
                  6 18 2 4 -1.</_>
                <_>
                  6 18 1 2 2.</_>
                <_>
                  7 20 1 2 2.</_></rects>
              <tilted>0</tilted></feature>
            <threshold>-1.8811740446835756e-03</threshold>
            <left_val>6.5830981731414795e-01</left_val>
            <right_val>-1.5567749738693237e-01</right_val></_></_>
        <_>
          <!-- tree 5 -->
          <_>
            <!-- root node -->
            <feature>
              <rects>
                <_>
                  20 12 10 16 -1.</_>
                <_>
                  20 12 5 16 2.</_></rects>
              <tilted>0</tilted></feature>
            <threshold>-1.0653310269117355e-01</threshold>
            <left_val>-6.9448107481002808e-01</left_val>
            <right_val>5.2535921335220337e-02</right_val></_></_>
        <_>
          <!-- tree 6 -->
          <_>
            <!-- root node -->
            <feature>
              <rects>
                <_>
                  0 15 6 15 -1.</_>
                <_>
                  3 15 3 15 2.</_></rects>
              <tilted>0</tilted></feature>
            <threshold>3.1030040699988604e-03</threshold>
            <left_val>1.6266979277133942e-01</left_val>
            <right_val>-6.7068928480148315e-01</right_val></_></_>
        <_>
          <!-- tree 7 -->
          <_>
            <!-- root node -->
            <feature>
              <rects>
                <_>
                  2 7 26 12 -1.</_>
                <_>
                  15 7 13 6 2.</_>
                <_>
                  2 13 13 6 2.</_></rects>
              <tilted>0</tilted></feature>
            <threshold>-1.8542729318141937e-02</threshold>
            <left_val>-5.3518807888031006e-01</left_val>
            <right_val>1.9562140107154846e-01</right_val></_></_>
        <_>
          <!-- tree 8 -->
          <_>
            <!-- root node -->
            <feature>
              <rects>
                <_>
                  0 9 29 12 -1.</_>
                <_>
                  0 13 29 4 3.</_></rects>
              <tilted>0</tilted></feature>
            <threshold>-4.1817311197519302e-02</threshold>
            <left_val>2.9759091138839722e-01</left_val>
            <right_val>-3.6809068918228149e-01</right_val></_></_>
        <_>
          <!-- tree 9 -->
          <_>
            <!-- root node -->
            <feature>
              <rects>
                <_>
                  12 13 12 12 -1.</_>
                <_>
                  12 17 12 4 3.</_></rects>
              <tilted>0</tilted></feature>
            <threshold>-6.2587596476078033e-02</threshold>
            <left_val>3.5531559586524963e-01</left_val>
            <right_val>-9.1967277228832245e-02</right_val></_></_>
        <_>
          <!-- tree 10 -->
          <_>
            <!-- root node -->
            <feature>
              <rects>
                <_>
                  0 3 26 8 -1.</_>
                <_>
                  13 3 13 8 2.</_></rects>
              <tilted>0</tilted></feature>
            <threshold>2.7779849246144295e-02</threshold>
            <left_val>1.5871159732341766e-01</left_val>
            <right_val>-6.7484897375106812e-01</right_val></_></_>
        <_>
          <!-- tree 11 -->
          <_>
            <!-- root node -->
            <feature>
              <rects>
                <_>
                  14 12 6 3 -1.</_>
                <_>
                  16 12 2 3 3.</_></rects>
              <tilted>0</tilted></feature>
            <threshold>3.6923510488122702e-03</threshold>
            <left_val>-1.3466669619083405e-01</left_val>
            <right_val>2.4402269721031189e-01</right_val></_></_>
        <_>
          <!-- tree 12 -->
          <_>
            <!-- root node -->
            <feature>
              <rects>
                <_>
                  0 23 2 3 -1.</_>
                <_>
                  0 24 2 1 3.</_></rects>
              <tilted>0</tilted></feature>
            <threshold>8.2558637950569391e-04</threshold>
            <left_val>1.2520700693130493e-01</left_val>
            <right_val>-7.5344222784042358e-01</right_val></_></_>
        <_>
          <!-- tree 13 -->
          <_>
            <!-- root node -->
            <feature>
              <rects>
                <_>
                  14 13 6 1 -1.</_>
                <_>
                  16 13 2 1 3.</_></rects>
              <tilted>0</tilted></feature>
            <threshold>-9.0787798399105668e-04</threshold>
            <left_val>2.1555809676647186e-01</left_val>
            <right_val>-1.7043310403823853e-01</right_val></_></_></trees>
      <stage_threshold>-7.5172412395477295e-01</stage_threshold>
      <parent>7</parent>
      <next>-1</next></_>
    <_>
      <!-- stage 9 -->
      <trees>
        <_>
          <!-- tree 0 -->
          <_>
            <!-- root node -->
            <feature>
              <rects>
                <_>
                  4 1 14 8 -1.</_>
                <_>
                  4 5 14 4 2.</_></rects>
              <tilted>0</tilted></feature>
            <threshold>-4.3877050280570984e-02</threshold>
            <left_val>6.2891411781311035e-01</left_val>
            <right_val>-2.4290950596332550e-01</right_val></_></_>
        <_>
          <!-- tree 1 -->
          <_>
            <!-- root node -->
            <feature>
              <rects>
                <_>
                  4 24 22 8 -1.</_>
                <_>
                  4 28 22 4 2.</_></rects>
              <tilted>0</tilted></feature>
            <threshold>3.6521088331937790e-02</threshold>
            <left_val>-2.8718191385269165e-01</left_val>
            <right_val>4.4480919837951660e-01</right_val></_></_>
        <_>
          <!-- tree 2 -->
          <_>
            <!-- root node -->
            <feature>
              <rects>
                <_>
                  6 15 3 9 -1.</_>
                <_>
                  6 18 3 3 3.</_></rects>
              <tilted>0</tilted></feature>
            <threshold>-1.3636229559779167e-02</threshold>
            <left_val>5.9926027059555054e-01</left_val>
            <right_val>-2.3089790344238281e-01</right_val></_></_>
        <_>
          <!-- tree 3 -->
          <_>
            <!-- root node -->
            <feature>
              <rects>
                <_>
                  20 7 2 9 -1.</_>
                <_>
                  20 10 2 3 3.</_></rects>
              <tilted>0</tilted></feature>
            <threshold>-1.2498740106821060e-02</threshold>
            <left_val>5.5800032615661621e-01</left_val>
            <right_val>-3.0615720897912979e-02</right_val></_></_>
        <_>
          <!-- tree 4 -->
          <_>
            <!-- root node -->
            <feature>
              <rects>
                <_>
                  8 7 2 9 -1.</_>
                <_>
                  8 10 2 3 3.</_></rects>
              <tilted>0</tilted></feature>
            <threshold>-5.3565208800137043e-03</threshold>
            <left_val>5.3071832656860352e-01</left_val>
            <right_val>-2.1779400110244751e-01</right_val></_></_>
        <_>
          <!-- tree 5 -->
          <_>
            <!-- root node -->
            <feature>
              <rects>
                <_>
                  6 8 20 6 -1.</_>
                <_>
                  6 10 20 2 3.</_></rects>
              <tilted>0</tilted></feature>
            <threshold>7.4960738420486450e-03</threshold>
            <left_val>-2.5619360804557800e-01</left_val>
            <right_val>2.5702118873596191e-01</right_val></_></_>
        <_>
          <!-- tree 6 -->
          <_>
            <!-- root node -->
            <feature>
              <rects>
                <_>
                  2 18 1 12 -1.</_>
                <_>
                  2 24 1 6 2.</_></rects>
              <tilted>0</tilted></feature>
            <threshold>6.4312940230593085e-04</threshold>
            <left_val>2.3448780179023743e-01</left_val>
            <right_val>-4.8190510272979736e-01</right_val></_></_>
        <_>
          <!-- tree 7 -->
          <_>
            <!-- root node -->
            <feature>
              <rects>
                <_>
                  14 9 16 20 -1.</_>
                <_>
                  22 9 8 10 2.</_>
                <_>
                  14 19 8 10 2.</_></rects>
              <tilted>0</tilted></feature>
            <threshold>-7.7835567295551300e-02</threshold>
            <left_val>-5.6978869438171387e-01</left_val>
            <right_val>5.4597381502389908e-02</right_val></_></_>
        <_>
          <!-- tree 8 -->
          <_>
            <!-- root node -->
            <feature>
              <rects>
                <_>
                  0 9 16 20 -1.</_>
                <_>
                  0 9 8 10 2.</_>
                <_>
                  8 19 8 10 2.</_></rects>
              <tilted>0</tilted></feature>
            <threshold>6.3317358493804932e-02</threshold>
            <left_val>1.4353330433368683e-01</left_val>
            <right_val>-8.2377898693084717e-01</right_val></_></_>
        <_>
          <!-- tree 9 -->
          <_>
            <!-- root node -->
            <feature>
              <rects>
                <_>
                  17 6 1 9 -1.</_>
                <_>
                  17 9 1 3 3.</_></rects>
              <tilted>0</tilted></feature>
            <threshold>-6.1933998949825764e-03</threshold>
            <left_val>6.7975908517837524e-01</left_val>
            <right_val>-7.2501122951507568e-02</right_val></_></_>
        <_>
          <!-- tree 10 -->
          <_>
            <!-- root node -->
            <feature>
              <rects>
                <_>
                  12 6 1 9 -1.</_>
                <_>
                  12 9 1 3 3.</_></rects>
              <tilted>0</tilted></feature>
            <threshold>-8.1338657764717937e-04</threshold>
            <left_val>4.3574118614196777e-01</left_val>
            <right_val>-2.4825540184974670e-01</right_val></_></_>
        <_>
          <!-- tree 11 -->
          <_>
            <!-- root node -->
            <feature>
              <rects>
                <_>
                  28 23 2 3 -1.</_>
                <_>
                  28 24 2 1 3.</_></rects>
              <tilted>0</tilted></feature>
            <threshold>-2.1367250010371208e-03</threshold>
            <left_val>-8.3582538366317749e-01</left_val>
            <right_val>5.7516839355230331e-02</right_val></_></_>
        <_>
          <!-- tree 12 -->
          <_>
            <!-- root node -->
            <feature>
              <rects>
                <_>
                  0 23 2 3 -1.</_>
                <_>
                  0 24 2 1 3.</_></rects>
              <tilted>0</tilted></feature>
            <threshold>-2.0818659686483443e-04</threshold>
            <left_val>-5.8890318870544434e-01</left_val>
            <right_val>2.0407280325889587e-01</right_val></_></_>
        <_>
          <!-- tree 13 -->
          <_>
            <!-- root node -->
            <feature>
              <rects>
                <_>
                  26 20 2 8 -1.</_>
                <_>
                  26 20 1 8 2.</_></rects>
              <tilted>0</tilted></feature>
            <threshold>4.4263040763325989e-04</threshold>
            <left_val>-1.3388359546661377e-01</left_val>
            <right_val>1.9486409425735474e-01</right_val></_></_>
        <_>
          <!-- tree 14 -->
          <_>
            <!-- root node -->
            <feature>
              <rects>
                <_>
                  2 20 2 8 -1.</_>
                <_>
                  3 20 1 8 2.</_></rects>
              <tilted>0</tilted></feature>
            <threshold>-9.6801326435524970e-05</threshold>
            <left_val>-3.5969910025596619e-01</left_val>
            <right_val>3.1178951263427734e-01</right_val></_></_></trees>
      <stage_threshold>-8.5691082477569580e-01</stage_threshold>
      <parent>8</parent>
      <next>-1</next></_>
    <_>
      <!-- stage 10 -->
      <trees>
        <_>
          <!-- tree 0 -->
          <_>
            <!-- root node -->
            <feature>
              <rects>
                <_>
                  9 17 5 4 -1.</_>
                <_>
                  9 19 5 2 2.</_></rects>
              <tilted>0</tilted></feature>
            <threshold>1.2602220289409161e-02</threshold>
            <left_val>-1.9525650143623352e-01</left_val>
            <right_val>8.7329632043838501e-01</right_val></_></_>
        <_>
          <!-- tree 1 -->
          <_>
            <!-- root node -->
            <feature>
              <rects>
                <_>
                  11 2 17 30 -1.</_>
                <_>
                  11 12 17 10 3.</_></rects>
              <tilted>0</tilted></feature>
            <threshold>-1.5649630129337311e-01</threshold>
            <left_val>1.8156729638576508e-01</left_val>
            <right_val>-2.4722209572792053e-01</right_val></_></_>
        <_>
          <!-- tree 2 -->
          <_>
            <!-- root node -->
            <feature>
              <rects>
                <_>
                  3 18 24 5 -1.</_>
                <_>
                  15 18 12 5 2.</_></rects>
              <tilted>0</tilted></feature>
            <threshold>-5.3309071809053421e-02</threshold>
            <left_val>-8.5810357332229614e-01</left_val>
            <right_val>1.3830320537090302e-01</right_val></_></_>
        <_>
          <!-- tree 3 -->
          <_>
            <!-- root node -->
            <feature>
              <rects>
                <_>
                  12 12 6 10 -1.</_>
                <_>
                  15 12 3 5 2.</_>
                <_>
                  12 17 3 5 2.</_></rects>
              <tilted>0</tilted></feature>
            <threshold>1.9058650359511375e-03</threshold>
            <left_val>-4.5317518711090088e-01</left_val>
            <right_val>2.5552570819854736e-01</right_val></_></_>
        <_>
          <!-- tree 4 -->
          <_>
            <!-- root node -->
            <feature>
              <rects>
                <_>
                  3 9 6 7 -1.</_>
                <_>
                  5 9 2 7 3.</_></rects>
              <tilted>0</tilted></feature>
            <threshold>5.4122190922498703e-03</threshold>
            <left_val>-2.6884230971336365e-01</left_val>
            <right_val>4.3572959303855896e-01</right_val></_></_>
        <_>
          <!-- tree 5 -->
          <_>
            <!-- root node -->
            <feature>
              <rects>
                <_>
                  16 26 13 6 -1.</_>
                <_>
                  16 28 13 2 3.</_></rects>
              <tilted>0</tilted></feature>
            <threshold>-2.1215060725808144e-02</threshold>
            <left_val>5.1629519462585449e-01</left_val>
            <right_val>-2.1306920796632767e-02</right_val></_></_>
        <_>
          <!-- tree 6 -->
          <_>
            <!-- root node -->
            <feature>
              <rects>
                <_>
                  5 21 6 2 -1.</_>
                <_>
                  7 21 2 2 3.</_></rects>
              <tilted>0</tilted></feature>
            <threshold>-7.1512227877974510e-03</threshold>
            <left_val>7.5335961580276489e-01</left_val>
            <right_val>-1.6216580569744110e-01</right_val></_></_>
        <_>
          <!-- tree 7 -->
          <_>
            <!-- root node -->
            <feature>
              <rects>
                <_>
                  18 21 2 2 -1.</_>
                <_>
                  19 21 1 1 2.</_>
                <_>
                  18 22 1 1 2.</_></rects>
              <tilted>0</tilted></feature>
            <threshold>4.1780571336857975e-04</threshold>
            <left_val>-9.4331063330173492e-02</left_val>
            <right_val>3.5288080573081970e-01</right_val></_></_>
        <_>
          <!-- tree 8 -->
          <_>
            <!-- root node -->
            <feature>
              <rects>
                <_>
                  0 1 4 4 -1.</_>
                <_>
                  0 3 4 2 2.</_></rects>
              <tilted>0</tilted></feature>
            <threshold>4.6060659224167466e-04</threshold>
            <left_val>3.0111780762672424e-01</left_val>
            <right_val>-4.2664489150047302e-01</right_val></_></_>
        <_>
          <!-- tree 9 -->
          <_>
            <!-- root node -->
            <feature>
              <rects>
                <_>
                  19 2 10 2 -1.</_>
                <_>
                  24 2 5 1 2.</_>
                <_>
                  19 3 5 1 2.</_></rects>
              <tilted>0</tilted></feature>
            <threshold>3.7089290563017130e-03</threshold>
            <left_val>4.2539641261100769e-02</left_val>
            <right_val>-5.3997647762298584e-01</right_val></_></_>
        <_>
          <!-- tree 10 -->
          <_>
            <!-- root node -->
            <feature>
              <rects>
                <_>
                  12 3 5 20 -1.</_>
                <_>
                  12 13 5 10 2.</_></rects>
              <tilted>0</tilted></feature>
            <threshold>-3.7202220410108566e-02</threshold>
            <left_val>2.1322999894618988e-01</left_val>
            <right_val>-5.3493380546569824e-01</right_val></_></_>
        <_>
          <!-- tree 11 -->
          <_>
            <!-- root node -->
            <feature>
              <rects>
                <_>
                  21 1 9 18 -1.</_>
                <_>
                  24 1 3 18 3.</_></rects>
              <tilted>0</tilted></feature>
            <threshold>3.0088299885392189e-02</threshold>
            <left_val>-6.7112371325492859e-02</left_val>
            <right_val>3.3032220602035522e-01</right_val></_></_>
        <_>
          <!-- tree 12 -->
          <_>
            <!-- root node -->
            <feature>
              <rects>
                <_>
                  0 1 9 18 -1.</_>
                <_>
                  3 1 3 18 3.</_></rects>
              <tilted>0</tilted></feature>
            <threshold>-1.7654690891504288e-02</threshold>
            <left_val>5.0583761930465698e-01</left_val>
            <right_val>-2.5577029585838318e-01</right_val></_></_>
        <_>
          <!-- tree 13 -->
          <_>
            <!-- root node -->
            <feature>
              <rects>
                <_>
                  12 2 18 16 -1.</_>
                <_>
                  12 2 9 16 2.</_></rects>
              <tilted>0</tilted></feature>
            <threshold>-9.9365681409835815e-02</threshold>
            <left_val>2.3288559913635254e-01</left_val>
            <right_val>-1.7529180645942688e-01</right_val></_></_>
        <_>
          <!-- tree 14 -->
          <_>
            <!-- root node -->
            <feature>
              <rects>
                <_>
                  3 10 24 5 -1.</_>
                <_>
                  11 10 8 5 3.</_></rects>
              <tilted>0</tilted></feature>
            <threshold>-6.1423990875482559e-02</threshold>
            <left_val>-6.7336791753768921e-01</left_val>
            <right_val>1.8008339405059814e-01</right_val></_></_></trees>
      <stage_threshold>-6.8021357059478760e-01</stage_threshold>
      <parent>9</parent>
      <next>-1</next></_>
    <_>
      <!-- stage 11 -->
      <trees>
        <_>
          <!-- tree 0 -->
          <_>
            <!-- root node -->
            <feature>
              <rects>
                <_>
                  6 6 18 15 -1.</_>
                <_>
                  12 6 6 15 3.</_></rects>
              <tilted>0</tilted></feature>
            <threshold>-9.9243700504302979e-02</threshold>
            <left_val>4.2433249950408936e-01</left_val>
            <right_val>-4.1472679376602173e-01</right_val></_></_>
        <_>
          <!-- tree 1 -->
          <_>
            <!-- root node -->
            <feature>
              <rects>
                <_>
                  20 12 2 2 -1.</_>
                <_>
                  21 12 1 1 2.</_>
                <_>
                  20 13 1 1 2.</_></rects>
              <tilted>0</tilted></feature>
            <threshold>1.2363330461084843e-04</threshold>
            <left_val>-1.2856189906597137e-01</left_val>
            <right_val>2.2126230597496033e-01</right_val></_></_>
        <_>
          <!-- tree 2 -->
          <_>
            <!-- root node -->
            <feature>
              <rects>
                <_>
                  4 3 3 12 -1.</_>
                <_>
                  4 7 3 4 3.</_></rects>
              <tilted>0</tilted></feature>
            <threshold>-1.1043420061469078e-02</threshold>
            <left_val>6.5255677700042725e-01</left_val>
            <right_val>-2.3255020380020142e-01</right_val></_></_>
        <_>
          <!-- tree 3 -->
          <_>
            <!-- root node -->
            <feature>
              <rects>
                <_>
                  26 0 4 2 -1.</_>
                <_>
                  28 0 2 1 2.</_>
                <_>
                  26 1 2 1 2.</_></rects>
              <tilted>0</tilted></feature>
            <threshold>-5.5801018606871367e-04</threshold>
            <left_val>-5.4488188028335571e-01</left_val>
            <right_val>1.5085460245609283e-01</right_val></_></_>
        <_>
          <!-- tree 4 -->
          <_>
            <!-- root node -->
            <feature>
              <rects>
                <_>
                  0 0 4 2 -1.</_>
                <_>
                  0 0 2 1 2.</_>
                <_>
                  2 1 2 1 2.</_></rects>
              <tilted>0</tilted></feature>
            <threshold>1.1936810187762603e-04</threshold>
            <left_val>3.4608191251754761e-01</left_val>
            <right_val>-4.4620248675346375e-01</right_val></_></_>
        <_>
          <!-- tree 5 -->
          <_>
            <!-- root node -->
            <feature>
              <rects>
                <_>
                  8 24 14 8 -1.</_>
                <_>
                  15 24 7 4 2.</_>
                <_>
                  8 28 7 4 2.</_></rects>
              <tilted>0</tilted></feature>
            <threshold>-9.7418967634439468e-03</threshold>
            <left_val>4.4793200492858887e-01</left_val>
            <right_val>-3.2036569714546204e-01</right_val></_></_>
        <_>
          <!-- tree 6 -->
          <_>
            <!-- root node -->
            <feature>
              <rects>
                <_>
                  6 8 16 12 -1.</_>
                <_>
                  6 14 16 6 2.</_></rects>
              <tilted>0</tilted></feature>
            <threshold>-1.2052249908447266e-01</threshold>
            <left_val>-9.0867757797241211e-01</left_val>
            <right_val>1.5299980342388153e-01</right_val></_></_>
        <_>
          <!-- tree 7 -->
          <_>
            <!-- root node -->
            <feature>
              <rects>
                <_>
                  4 9 26 8 -1.</_>
                <_>
                  17 9 13 4 2.</_>
                <_>
                  4 13 13 4 2.</_></rects>
              <tilted>0</tilted></feature>
            <threshold>1.9672499969601631e-02</threshold>
            <left_val>-1.4602339267730713e-01</left_val>
            <right_val>3.0735969543457031e-01</right_val></_></_>
        <_>
          <!-- tree 8 -->
          <_>
            <!-- root node -->
            <feature>
              <rects>
                <_>
                  13 8 4 12 -1.</_>
                <_>
                  13 14 4 6 2.</_></rects>
              <tilted>0</tilted></feature>
            <threshold>-1.2056839652359486e-02</threshold>
            <left_val>1.8318800628185272e-01</left_val>
            <right_val>-7.8033149242401123e-01</right_val></_></_>
        <_>
          <!-- tree 9 -->
          <_>
            <!-- root node -->
            <feature>
              <rects>
                <_>
                  15 10 6 2 -1.</_>
                <_>
                  18 10 3 1 2.</_>
                <_>
                  15 11 3 1 2.</_></rects>
              <tilted>0</tilted></feature>
            <threshold>-9.3776127323508263e-04</threshold>
            <left_val>3.0578058958053589e-01</left_val>
            <right_val>-1.9732849299907684e-01</right_val></_></_>
        <_>
          <!-- tree 10 -->
          <_>
            <!-- root node -->
            <feature>
              <rects>
                <_>
                  0 15 8 12 -1.</_>
                <_>
                  4 15 4 12 2.</_></rects>
              <tilted>0</tilted></feature>
            <threshold>-2.3432750254869461e-02</threshold>
            <left_val>5.2945172786712646e-01</left_val>
            <right_val>-2.9134321212768555e-01</right_val></_></_>
        <_>
          <!-- tree 11 -->
          <_>
            <!-- root node -->
            <feature>
              <rects>
                <_>
                  23 28 3 1 -1.</_>
                <_>
                  24 28 1 1 3.</_></rects>
              <tilted>0</tilted></feature>
            <threshold>-1.5447300393134356e-04</threshold>
            <left_val>-3.5185050964355469e-01</left_val>
            <right_val>8.8056631386280060e-02</right_val></_></_>
        <_>
          <!-- tree 12 -->
          <_>
            <!-- root node -->
            <feature>
              <rects>
                <_>
                  4 28 3 1 -1.</_>
                <_>
                  5 28 1 1 3.</_></rects>
              <tilted>0</tilted></feature>
            <threshold>-8.3383449236862361e-05</threshold>
            <left_val>-5.6708681583404541e-01</left_val>
            <right_val>2.5893050432205200e-01</right_val></_></_>
        <_>
          <!-- tree 13 -->
          <_>
            <!-- root node -->
            <feature>
              <rects>
                <_>
                  20 15 6 9 -1.</_>
                <_>
                  22 15 2 9 3.</_></rects>
              <tilted>0</tilted></feature>
            <threshold>-3.2557600643485785e-03</threshold>
            <left_val>2.5962901115417480e-01</left_val>
            <right_val>-1.8672910332679749e-01</right_val></_></_>
        <_>
          <!-- tree 14 -->
          <_>
            <!-- root node -->
            <feature>
              <rects>
                <_>
                  1 14 3 18 -1.</_>
                <_>
                  1 20 3 6 3.</_></rects>
              <tilted>0</tilted></feature>
            <threshold>2.6510818861424923e-03</threshold>
            <left_val>5.0312298536300659e-01</left_val>
            <right_val>-3.4114930033683777e-01</right_val></_></_></trees>
      <stage_threshold>-1.0459439754486084e+00</stage_threshold>
      <parent>10</parent>
      <next>-1</next></_>
    <_>
      <!-- stage 12 -->
      <trees>
        <_>
          <!-- tree 0 -->
          <_>
            <!-- root node -->
            <feature>
              <rects>
                <_>
                  11 14 2 6 -1.</_>
                <_>
                  11 16 2 2 3.</_></rects>
              <tilted>0</tilted></feature>
            <threshold>-6.4449962228536606e-03</threshold>
            <left_val>8.6869370937347412e-01</left_val>
            <right_val>-2.4570140242576599e-01</right_val></_></_>
        <_>
          <!-- tree 1 -->
          <_>
            <!-- root node -->
            <feature>
              <rects>
                <_>
                  28 5 2 2 -1.</_>
                <_>
                  29 5 1 1 2.</_>
                <_>
                  28 6 1 1 2.</_></rects>
              <tilted>0</tilted></feature>
            <threshold>-1.0396820289315656e-04</threshold>
            <left_val>-6.9697540998458862e-01</left_val>
            <right_val>2.6377260684967041e-01</right_val></_></_>
        <_>
          <!-- tree 2 -->
          <_>
            <!-- root node -->
            <feature>
              <rects>
                <_>
                  0 5 2 2 -1.</_>
                <_>
                  0 5 1 1 2.</_>
                <_>
                  1 6 1 1 2.</_></rects>
              <tilted>0</tilted></feature>
            <threshold>-1.4876420027576387e-04</threshold>
            <left_val>-7.2943121194839478e-01</left_val>
            <right_val>2.4742719531059265e-01</right_val></_></_>
        <_>
          <!-- tree 3 -->
          <_>
            <!-- root node -->
            <feature>
              <rects>
                <_>
                  12 13 12 16 -1.</_>
                <_>
                  12 13 6 16 2.</_></rects>
              <tilted>0</tilted></feature>
            <threshold>-3.5476980265229940e-03</threshold>
            <left_val>6.9806747138500214e-02</left_val>
            <right_val>-6.1372351646423340e-01</right_val></_></_>
        <_>
          <!-- tree 4 -->
          <_>
            <!-- root node -->
            <feature>
              <rects>
                <_>
                  0 17 4 6 -1.</_>
                <_>
                  0 19 4 2 3.</_></rects>
              <tilted>0</tilted></feature>
            <threshold>6.6704838536679745e-04</threshold>
            <left_val>5.0898170471191406e-01</left_val>
            <right_val>-3.6475071310997009e-01</right_val></_></_>
        <_>
          <!-- tree 5 -->
          <_>
            <!-- root node -->
            <feature>
              <rects>
                <_>
                  20 14 4 6 -1.</_>
                <_>
                  22 14 2 3 2.</_>
                <_>
                  20 17 2 3 2.</_></rects>
              <tilted>0</tilted></feature>
            <threshold>-7.5996341183781624e-03</threshold>
            <left_val>7.6028561592102051e-01</left_val>
            <right_val>-9.7410187125205994e-02</right_val></_></_>
        <_>
          <!-- tree 6 -->
          <_>
            <!-- root node -->
            <feature>
              <rects>
                <_>
                  6 12 12 19 -1.</_>
                <_>
                  12 12 6 19 2.</_></rects>
              <tilted>0</tilted></feature>
            <threshold>-6.1260271817445755e-02</threshold>
            <left_val>4.8884189128875732e-01</left_val>
            <right_val>-4.0129289031028748e-01</right_val></_></_>
        <_>
          <!-- tree 7 -->
          <_>
            <!-- root node -->
            <feature>
              <rects>
                <_>
                  5 13 20 2 -1.</_>
                <_>
                  15 13 10 1 2.</_>
                <_>
                  5 14 10 1 2.</_></rects>
              <tilted>0</tilted></feature>
            <threshold>2.9406980611383915e-03</threshold>
            <left_val>-3.0307871103286743e-01</left_val>
            <right_val>7.4286097288131714e-01</right_val></_></_>
        <_>
          <!-- tree 8 -->
          <_>
            <!-- root node -->
            <feature>
              <rects>
                <_>
                  7 30 6 2 -1.</_>
                <_>
                  7 31 6 1 2.</_></rects>
              <tilted>0</tilted></feature>
            <threshold>-3.8145939470268786e-04</threshold>
            <left_val>-5.0447309017181396e-01</left_val>
            <right_val>3.9385139942169189e-01</right_val></_></_>
        <_>
          <!-- tree 9 -->
          <_>
            <!-- root node -->
            <feature>
              <rects>
                <_>
                  20 14 4 6 -1.</_>
                <_>
                  22 14 2 3 2.</_>
                <_>
                  20 17 2 3 2.</_></rects>
              <tilted>0</tilted></feature>
            <threshold>-5.0307479687035084e-03</threshold>
            <left_val>3.9366990327835083e-01</left_val>
            <right_val>-1.2382219731807709e-01</right_val></_></_>
        <_>
          <!-- tree 10 -->
          <_>
            <!-- root node -->
            <feature>
              <rects>
                <_>
                  12 11 2 1 -1.</_>
                <_>
                  13 11 1 1 2.</_></rects>
              <tilted>0</tilted></feature>
            <threshold>2.6974559295922518e-04</threshold>
            <left_val>-2.3921270668506622e-01</left_val>
            <right_val>7.2475141286849976e-01</right_val></_></_></trees>
      <stage_threshold>-9.0353691577911377e-01</stage_threshold>
      <parent>11</parent>
      <next>-1</next></_>
    <_>
      <!-- stage 13 -->
      <trees>
        <_>
          <!-- tree 0 -->
          <_>
            <!-- root node -->
            <feature>
              <rects>
                <_>
                  6 18 8 3 -1.</_>
                <_>
                  6 19 8 1 3.</_></rects>
              <tilted>0</tilted></feature>
            <threshold>1.8314139451831579e-03</threshold>
            <left_val>-2.8535300493240356e-01</left_val>
            <right_val>1.0000059604644775e+00</right_val></_></_>
        <_>
          <!-- tree 1 -->
          <_>
            <!-- root node -->
            <feature>
              <rects>
                <_>
                  18 14 5 6 -1.</_>
                <_>
                  18 16 5 2 3.</_></rects>
              <tilted>0</tilted></feature>
            <threshold>-1.1384380050003529e-02</threshold>
            <left_val>7.4553328752517700e-01</left_val>
            <right_val>-9.1585136950016022e-02</right_val></_></_>
        <_>
          <!-- tree 2 -->
          <_>
            <!-- root node -->
            <feature>
              <rects>
                <_>
                  7 13 3 4 -1.</_>
                <_>
                  7 15 3 2 2.</_></rects>
              <tilted>0</tilted></feature>
            <threshold>2.0183210726827383e-03</threshold>
            <left_val>-2.4464780092239380e-01</left_val>
            <right_val>8.8332712650299072e-01</right_val></_></_>
        <_>
          <!-- tree 3 -->
          <_>
            <!-- root node -->
            <feature>
              <rects>
                <_>
                  13 16 6 4 -1.</_>
                <_>
                  13 18 6 2 2.</_></rects>
              <tilted>0</tilted></feature>
            <threshold>9.3511777231469750e-04</threshold>
            <left_val>-2.6901489496231079e-01</left_val>
            <right_val>4.1277599334716797e-01</right_val></_></_>
        <_>
          <!-- tree 4 -->
          <_>
            <!-- root node -->
            <feature>
              <rects>
                <_>
                  7 21 5 3 -1.</_>
                <_>
                  7 22 5 1 3.</_></rects>
              <tilted>0</tilted></feature>
            <threshold>1.1322939826641232e-04</threshold>
            <left_val>-3.8224458694458008e-01</left_val>
            <right_val>5.7062131166458130e-01</right_val></_></_>
        <_>
          <!-- tree 5 -->
          <_>
            <!-- root node -->
            <feature>
              <rects>
                <_>
                  18 18 1 14 -1.</_>
                <_>
                  18 25 1 7 2.</_></rects>
              <tilted>0</tilted></feature>
            <threshold>1.5502669848501682e-02</threshold>
            <left_val>7.0414952933788300e-02</left_val>
            <right_val>-6.4560127258300781e-01</right_val></_></_>
        <_>
          <!-- tree 6 -->
          <_>
            <!-- root node -->
            <feature>
              <rects>
                <_>
                  3 14 6 4 -1.</_>
                <_>
                  5 14 2 4 3.</_></rects>
              <tilted>0</tilted></feature>
            <threshold>1.3849040260538459e-03</threshold>
            <left_val>-4.2555749416351318e-01</left_val>
            <right_val>6.0576397180557251e-01</right_val></_></_>
        <_>
          <!-- tree 7 -->
          <_>
            <!-- root node -->
            <feature>
              <rects>
                <_>
                  15 18 3 10 -1.</_>
                <_>
                  16 18 1 10 3.</_></rects>
              <tilted>0</tilted></feature>
            <threshold>-3.0081330332905054e-03</threshold>
            <left_val>6.9648522138595581e-01</left_val>
            <right_val>-1.9985869526863098e-01</right_val></_></_>
        <_>
          <!-- tree 8 -->
          <_>
            <!-- root node -->
            <feature>
              <rects>
                <_>
                  1 29 18 1 -1.</_>
                <_>
                  7 29 6 1 3.</_></rects>
              <tilted>0</tilted></feature>
            <threshold>1.5064229955896735e-04</threshold>
            <left_val>6.1583709716796875e-01</left_val>
            <right_val>-4.3877100944519043e-01</right_val></_></_></trees>
      <stage_threshold>-6.8848288059234619e-01</stage_threshold>
      <parent>12</parent>
      <next>-1</next></_></stages></parrot2>
</opencv_storage>
